digraph Tree {
node [shape=box, style="filled, rounded", color="black", fontname="helvetica"] ;
edge [fontname="helvetica"] ;
0 [label="X[335] <= 0.02\ngini = 0.5\nsamples = 800\nvalue = [407, 393]\nclass = 1", fillcolor="#fefbf8"] ;
1 [label="X[162] <= -0.03\ngini = 0.49\nsamples = 645\nvalue = [281, 364]\nclass = 0", fillcolor="#d2e9f9"] ;
0 -> 1 [labeldistance=2.5, labelangle=45, headlabel="True"] ;
2 [label="X[103] <= 23.72\ngini = 0.17\nsamples = 84\nvalue = [8, 76]\nclass = 0", fillcolor="#4ea7e8"] ;
1 -> 2 ;
3 [label="X[375] <= -21.71\ngini = 0.1\nsamples = 79\nvalue = [4, 75]\nclass = 0", fillcolor="#44a2e6"] ;
2 -> 3 ;
4 [label="gini = 0.44\nsamples = 9\nvalue = [3, 6]\nclass = 0", fillcolor="#9ccef2"] ;
3 -> 4 ;
5 [label="X[360] <= 33.55\ngini = 0.03\nsamples = 70\nvalue = [1, 69]\nclass = 0", fillcolor="#3c9ee5"] ;
3 -> 5 ;
6 [label="gini = 0.0\nsamples = 65\nvalue = [0, 65]\nclass = 0", fillcolor="#399de5"] ;
5 -> 6 ;
7 [label="gini = 0.32\nsamples = 5\nvalue = [1, 4]\nclass = 0", fillcolor="#6ab6ec"] ;
5 -> 7 ;
8 [label="gini = 0.32\nsamples = 5\nvalue = [4, 1]\nclass = 1", fillcolor="#eca06a"] ;
2 -> 8 ;
9 [label="X[369] <= -0.22\ngini = 0.5\nsamples = 561\nvalue = [273, 288]\nclass = 0", fillcolor="#f5fafe"] ;
1 -> 9 ;
10 [label="X[194] <= -3.1\ngini = 0.26\nsamples = 52\nvalue = [44, 8]\nclass = 1", fillcolor="#ea985d"] ;
9 -> 10 ;
11 [label="gini = 0.41\nsamples = 7\nvalue = [2, 5]\nclass = 0", fillcolor="#88c4ef"] ;
10 -> 11 ;
12 [label="X[216] <= 3.17\ngini = 0.12\nsamples = 45\nvalue = [42, 3]\nclass = 1", fillcolor="#e78a47"] ;
10 -> 12 ;
13 [label="gini = 0.0\nsamples = 40\nvalue = [40, 0]\nclass = 1", fillcolor="#e58139"] ;
12 -> 13 ;
14 [label="gini = 0.48\nsamples = 5\nvalue = [2, 3]\nclass = 0", fillcolor="#bddef6"] ;
12 -> 14 ;
15 [label="X[369] <= 8.62\ngini = 0.49\nsamples = 509\nvalue = [229, 280]\nclass = 0", fillcolor="#dbedfa"] ;
9 -> 15 ;
16 [label="X[81] <= -0.26\ngini = 0.49\nsamples = 489\nvalue = [209, 280]\nclass = 0", fillcolor="#cde6f8"] ;
15 -> 16 ;
17 [label="gini = 0.36\nsamples = 39\nvalue = [30, 9]\nclass = 1", fillcolor="#eda774"] ;
16 -> 17 ;
18 [label="gini = 0.48\nsamples = 450\nvalue = [179, 271]\nclass = 0", fillcolor="#bcdef6"] ;
16 -> 18 ;
19 [label="gini = 0.0\nsamples = 20\nvalue = [20, 0]\nclass = 1", fillcolor="#e58139"] ;
15 -> 19 ;
20 [label="X[124] <= 0.71\ngini = 0.3\nsamples = 155\nvalue = [126, 29]\nclass = 1", fillcolor="#eb9e67"] ;
0 -> 20 [labeldistance=2.5, labelangle=-45, headlabel="False"] ;
21 [label="X[218] <= -1.92\ngini = 0.12\nsamples = 120\nvalue = [112, 8]\nclass = 1", fillcolor="#e78a47"] ;
20 -> 21 ;
22 [label="gini = 0.32\nsamples = 5\nvalue = [1, 4]\nclass = 0", fillcolor="#6ab6ec"] ;
21 -> 22 ;
23 [label="X[77] <= 23.84\ngini = 0.07\nsamples = 115\nvalue = [111, 4]\nclass = 1", fillcolor="#e68640"] ;
21 -> 23 ;
24 [label="X[30] <= 13.74\ngini = 0.02\nsamples = 110\nvalue = [109, 1]\nclass = 1", fillcolor="#e5823b"] ;
23 -> 24 ;
25 [label="gini = 0.0\nsamples = 105\nvalue = [105, 0]\nclass = 1", fillcolor="#e58139"] ;
24 -> 25 ;
26 [label="gini = 0.32\nsamples = 5\nvalue = [4, 1]\nclass = 1", fillcolor="#eca06a"] ;
24 -> 26 ;
27 [label="gini = 0.48\nsamples = 5\nvalue = [2, 3]\nclass = 0", fillcolor="#bddef6"] ;
23 -> 27 ;
28 [label="X[124] <= 18.41\ngini = 0.48\nsamples = 35\nvalue = [14, 21]\nclass = 0", fillcolor="#bddef6"] ;
20 -> 28 ;
29 [label="X[51] <= -1.54\ngini = 0.29\nsamples = 23\nvalue = [4, 19]\nclass = 0", fillcolor="#63b2ea"] ;
28 -> 29 ;
30 [label="gini = 0.5\nsamples = 8\nvalue = [4, 4]\nclass = 1", fillcolor="#ffffff"] ;
29 -> 30 ;
31 [label="gini = 0.0\nsamples = 15\nvalue = [0, 15]\nclass = 0", fillcolor="#399de5"] ;
29 -> 31 ;
32 [label="X[176] <= 11.74\ngini = 0.28\nsamples = 12\nvalue = [10, 2]\nclass = 1", fillcolor="#ea9a61"] ;
28 -> 32 ;
33 [label="gini = 0.0\nsamples = 7\nvalue = [7, 0]\nclass = 1", fillcolor="#e58139"] ;
32 -> 33 ;
34 [label="gini = 0.48\nsamples = 5\nvalue = [3, 2]\nclass = 1", fillcolor="#f6d5bd"] ;
32 -> 34 ;
}