digraph Tree {
node [shape=box, style="filled, rounded", color="black", fontname="helvetica"] ;
edge [fontname="helvetica"] ;
0 [label="feature 417 <= -4.39\ngini = 0.5\nsamples = 502\nvalue = [415, 385]", fillcolor="#fdf6f1"] ;
1 [label="feature 190 <= 1.05\ngini = 0.41\nsamples = 99\nvalue = [46, 112]", fillcolor="#8ac5f0"] ;
0 -> 1 [labeldistance=2.5, labelangle=45, headlabel="True"] ;
2 [label="feature 279 <= 6.69\ngini = 0.37\nsamples = 86\nvalue = [34, 104]", fillcolor="#7abdee"] ;
1 -> 2 ;
3 [label="feature 231 <= 3.87\ngini = 0.31\nsamples = 75\nvalue = [24, 100]", fillcolor="#69b5eb"] ;
2 -> 3 ;
4 [label="feature 375 <= -1.64\ngini = 0.21\nsamples = 61\nvalue = [12, 90]", fillcolor="#53aae8"] ;
3 -> 4 ;
5 [label="gini = 0.0\nsamples = 15\nvalue = [0, 32]", fillcolor="#399de5"] ;
4 -> 5 ;
6 [label="feature 180 <= -6.43\ngini = 0.28\nsamples = 46\nvalue = [12, 58]", fillcolor="#62b1ea"] ;
4 -> 6 ;
7 [label="gini = 0.47\nsamples = 11\nvalue = [6, 10]", fillcolor="#b0d8f5"] ;
6 -> 7 ;
8 [label="gini = 0.2\nsamples = 35\nvalue = [6, 48]", fillcolor="#52a9e8"] ;
6 -> 8 ;
9 [label="feature 401 <= -9.23\ngini = 0.5\nsamples = 14\nvalue = [12, 10]", fillcolor="#fbeade"] ;
3 -> 9 ;
10 [label="gini = 0.32\nsamples = 6\nvalue = [2, 8]", fillcolor="#6ab6ec"] ;
9 -> 10 ;
11 [label="gini = 0.28\nsamples = 8\nvalue = [10, 2]", fillcolor="#ea9a61"] ;
9 -> 11 ;
12 [label="gini = 0.41\nsamples = 11\nvalue = [10, 4]", fillcolor="#efb388"] ;
2 -> 12 ;
13 [label="feature 413 <= 0.66\ngini = 0.48\nsamples = 13\nvalue = [12, 8]", fillcolor="#f6d5bd"] ;
1 -> 13 ;
14 [label="gini = 0.3\nsamples = 6\nvalue = [9, 2]", fillcolor="#eb9d65"] ;
13 -> 14 ;
15 [label="gini = 0.44\nsamples = 7\nvalue = [3, 6]", fillcolor="#9ccef2"] ;
13 -> 15 ;
16 [label="feature 18 <= -0.15\ngini = 0.49\nsamples = 403\nvalue = [369, 273]", fillcolor="#f8decb"] ;
0 -> 16 [labeldistance=2.5, labelangle=-45, headlabel="False"] ;
17 [label="feature 192 <= -5.29\ngini = 0.23\nsamples = 70\nvalue = [102, 16]", fillcolor="#e99558"] ;
16 -> 17 ;
18 [label="gini = 0.5\nsamples = 9\nvalue = [7, 8]", fillcolor="#e6f3fc"] ;
17 -> 18 ;
19 [label="feature 283 <= 12.36\ngini = 0.14\nsamples = 61\nvalue = [95, 8]", fillcolor="#e78c4a"] ;
17 -> 19 ;
20 [label="feature 309 <= -18.36\ngini = 0.1\nsamples = 55\nvalue = [86, 5]", fillcolor="#e78845"] ;
19 -> 20 ;
21 [label="gini = 0.0\nsamples = 29\nvalue = [50, 0]", fillcolor="#e58139"] ;
20 -> 21 ;
22 [label="feature 406 <= -1.27\ngini = 0.21\nsamples = 26\nvalue = [36, 5]", fillcolor="#e99254"] ;
20 -> 22 ;
23 [label="gini = 0.44\nsamples = 8\nvalue = [10, 5]", fillcolor="#f2c09c"] ;
22 -> 23 ;
24 [label="gini = 0.0\nsamples = 18\nvalue = [26, 0]", fillcolor="#e58139"] ;
22 -> 24 ;
25 [label="gini = 0.38\nsamples = 6\nvalue = [9, 3]", fillcolor="#eeab7b"] ;
19 -> 25 ;
26 [label="feature 369 <= -0.19\ngini = 0.5\nsamples = 333\nvalue = [267, 257]", fillcolor="#fefaf8"] ;
16 -> 26 ;
27 [label="feature 186 <= 0.07\ngini = 0.06\nsamples = 35\nvalue = [58, 2]", fillcolor="#e68540"] ;
26 -> 27 ;
28 [label="feature 244 <= -4.51\ngini = 0.04\nsamples = 29\nvalue = [51, 1]", fillcolor="#e6833d"] ;
27 -> 28 ;
29 [label="gini = 0.15\nsamples = 6\nvalue = [11, 1]", fillcolor="#e78c4b"] ;
28 -> 29 ;
30 [label="gini = 0.0\nsamples = 23\nvalue = [40, 0]", fillcolor="#e58139"] ;
28 -> 30 ;
31 [label="gini = 0.22\nsamples = 6\nvalue = [7, 1]", fillcolor="#e99355"] ;
27 -> 31 ;
32 [label="feature 346 <= -4.73\ngini = 0.5\nsamples = 298\nvalue = [209, 255]", fillcolor="#dbedfa"] ;
26 -> 32 ;
33 [label="feature 137 <= -1.65\ngini = 0.21\nsamples = 16\nvalue = [29, 4]", fillcolor="#e99254"] ;
32 -> 33 ;
34 [label="gini = 0.36\nsamples = 6\nvalue = [10, 3]", fillcolor="#eda774"] ;
33 -> 34 ;
35 [label="gini = 0.09\nsamples = 10\nvalue = [19, 1]", fillcolor="#e68843"] ;
33 -> 35 ;
36 [label="feature 335 <= 22.15\ngini = 0.49\nsamples = 282\nvalue = [180, 251]", fillcolor="#c7e3f8"] ;
32 -> 36 ;
37 [label="feature 152 <= -2.68\ngini = 0.48\nsamples = 269\nvalue = [164, 249]", fillcolor="#bbdef6"] ;
36 -> 37 ;
38 [label="gini = 0.22\nsamples = 49\nvalue = [9, 64]", fillcolor="#55abe9"] ;
37 -> 38 ;
39 [label="gini = 0.5\nsamples = 220\nvalue = [155, 185]", fillcolor="#dfeffb"] ;
37 -> 39 ;
40 [label="feature 445 <= 1.83\ngini = 0.2\nsamples = 13\nvalue = [16, 2]", fillcolor="#e89152"] ;
36 -> 40 ;
41 [label="gini = 0.35\nsamples = 7\nvalue = [7, 2]", fillcolor="#eca572"] ;
40 -> 41 ;
42 [label="gini = 0.0\nsamples = 6\nvalue = [9, 0]", fillcolor="#e58139"] ;
40 -> 42 ;
}